<?xml version="1.0"?>
<opencv_storage>
<opencv_ml_rtrees>
  <format>3</format>
  <is_classifier>0</is_classifier>
  <var_all>8</var_all>
  <var_count>7</var_count>
  <ord_var_count>8</ord_var_count>
  <cat_var_count>0</cat_var_count>
  <training_params>
    <use_surrogates>0</use_surrogates>
    <max_categories>15</max_categories>
    <regression_accuracy>0.</regression_accuracy>
    <max_depth>20</max_depth>
    <min_sample_count>25</min_sample_count>
    <cross_validation_folds>0</cross_validation_folds>
    <priors type_id="opencv-matrix">
      <rows>4</rows>
      <cols>1</cols>
      <dt>f</dt>
      <data>
        1.00000001e-01 0. 0. 0.</data></priors>
    <nactive_vars>4</nactive_vars></training_params>
  <global_var_idx>1</global_var_idx>
  <var_idx>
    0 1 2 3 4 5 6</var_idx>
  <var_type>
    0 0 0 0 0 0 0 0</var_type>
  <cat_ofs>
    0 0 0 0 0 0 0 0 0 0 0 0 0 0</cat_ofs>
  <missing_subst>
    0. 0. 0. 0. 0. 0. 0. 0.</missing_subst>
  <oob_error>1.9249459773970137e-01</oob_error>
  <var_importance>
    2.78612405e-01 9.74813327e-02 1.08927362e-01 1.19195238e-01
    9.29726586e-02 1.44436926e-01 1.58374101e-01</var_importance>
  <ntrees>100</ntrees>
  <trees>
    <_>
      <nodes>
        <_>
          <depth>0</depth>
          <value>4.3121387283236995e-01</value>
          <splits>
            <_><var>0</var>
              <quality>2.0680349731445312e+02</quality>
              <le>-1.6022914496716112e-04</le></_></splits></_>
        <_>
          <depth>1</depth>
          <value>6.8090452261306533e-01</value>
          <splits>
            <_><var>6</var>
              <quality>1.9428836059570312e+02</quality>
              <le>9.9829053878784180e-01</le></_></splits></_>
        <_>
          <depth>2</depth>
          <value>0.</value></_>
        <_>
          <depth>2</depth>
          <value>7.1693121693121697e-01</value>
          <splits>
            <_><var>6</var>
              <quality>1.9816302490234375e+02</quality>
              <le>1.0023950338363647e+00</le></_></splits></_>
        <_>
          <depth>3</depth>
          <value>8.0180180180180183e-01</value>
          <splits>
            <_><var>1</var>
              <quality>1.4384109497070312e+02</quality>
              <le>-9.8344475030899048e-02</le></_></splits></_>
        <_>
          <depth>4</depth>
          <value>8.9285714285714290e-01</value>
          <splits>
            <_><var>1</var>
              <quality>6.7237098693847656e+01</quality>
              <le>-1.4722001552581787e-01</le></_></splits></_>
        <_>
          <depth>5</depth>
          <value>8.3720930232558144e-01</value>
          <splits>
            <_><var>2</var>
              <quality>3.1609756469726562e+01</quality>
              <le>1.1476104706525803e-01</le></_></splits></_>
        <_>
          <depth>6</depth>
          <value>0.</value></_>
        <_>
          <depth>6</depth>
          <value>8.7804878048780488e-01</value>
          <splits>
            <_><var>5</var>
              <quality>3.2266483306884766e+01</quality>
              <le>-7.2935288771986961e-03</le></_></splits></_>
        <_>
          <depth>7</depth>
          <value>6.9230769230769229e-01</value></_>
        <_>
          <depth>7</depth>
          <value>9.6428571428571430e-01</value>
          <splits>
            <_><var>0</var>
              <quality>2.6142856597900391e+01</quality>
              <le>-3.7178379716351628e-04</le></_></splits></_>
        <_>
          <depth>8</depth>
          <value>1.</value></_>
        <_>
          <depth>8</depth>
          <value>8.5714285714285710e-01</value></_>
        <_>
          <depth>5</depth>
          <value>9.5121951219512191e-01</value>
          <splits>
            <_><var>0</var>
              <quality>3.7285713195800781e+01</quality>
              <le>-3.0814975616522133e-04</le></_></splits></_>
        <_>
          <depth>6</depth>
          <value>1.</value>
          <splits>
            <_><var>1</var>
              <quality>27.</quality>
              <le>-1.4397235214710236e-01</le></_></splits></_>
        <_>
          <depth>7</depth>
          <value>1.</value></_>
        <_>
          <depth>7</depth>
          <value>1.</value></_>
        <_>
          <depth>6</depth>
          <value>8.5714285714285710e-01</value></_>
        <_>
          <depth>4</depth>
          <value>7.4637681159420288e-01</value>
          <splits>
            <_><var>6</var>
              <quality>7.9237327575683594e+01</quality>
              <le>1.0016882419586182e+00</le></_></splits></_>
        <_>
          <depth>5</depth>
          <value>7.9032258064516125e-01</value>
          <splits>
            <_><var>3</var>
              <quality>7.8090087890625000e+01</quality>
              <le>2.0359003916382790e-02</le></_></splits></_>
        <_>
          <depth>6</depth>
          <value>1.</value></_>
        <_>
          <depth>6</depth>
          <value>7.6576576576576572e-01</value>
          <splits>
            <_><var>5</var>
              <quality>6.6068252563476562e+01</quality>
              <le>-1.4211395755410194e-02</le></_></splits></_>
        <_>
          <depth>7</depth>
          <value>8.1111111111111112e-01</value>
          <splits>
            <_><var>5</var>
              <quality>6.0004310607910156e+01</quality>
              <le>-1.9577227532863617e-02</le></_></splits></_>
        <_>
          <depth>8</depth>
          <value>7.4137931034482762e-01</value>
          <splits>
            <_><var>5</var>
              <quality>3.4089744567871094e+01</quality>
              <le>-2.0267555490136147e-02</le></_></splits></_>
        <_>
          <depth>9</depth>
          <value>8.0769230769230771e-01</value>
          <splits>
            <_><var>0</var>
              <quality>3.4623657226562500e+01</quality>
              <le>-4.0211906889453530e-04</le></_></splits></_>
        <_>
          <depth>10</depth>
          <value>6.6666666666666663e-01</value></_>
        <_>
          <depth>10</depth>
          <value>9.0322580645161288e-01</value>
          <splits>
            <_><var>4</var>
              <quality>2.5750000000000000e+01</quality>
              <le>-2.0153980702161789e-02</le></_></splits></_>
        <_>
          <depth>11</depth>
          <value>1.</value></_>
        <_>
          <depth>11</depth>
          <value>7.5000000000000000e-01</value></_>
        <_>
          <depth>9</depth>
          <value>1.6666666666666666e-01</value></_>
        <_>
          <depth>8</depth>
          <value>9.3750000000000000e-01</value>
          <splits>
            <_><var>0</var>
              <quality>2.8235294342041016e+01</quality>
              <le>-3.3811770845204592e-04</le></_></splits></_>
        <_>
          <depth>9</depth>
          <value>1.</value></_>
        <_>
          <depth>9</depth>
          <value>8.8235294117647056e-01</value></_>
        <_>
          <depth>7</depth>
          <value>5.7142857142857140e-01</value></_>
        <_>
          <depth>5</depth>
          <value>3.5714285714285715e-01</value></_>
        <_>
          <depth>3</depth>
          <value>5.9615384615384615e-01</value>
          <splits>
            <_><var>3</var>
              <quality>5.7317356109619141e+01</quality>
              <le>5.3727175109088421e-03</le></_></splits></_>
        <_>
          <depth>4</depth>
          <value>8.0000000000000004e-01</value>
          <splits>
            <_><var>2</var>
              <quality>2.2884614944458008e+01</quality>
              <le>1.0325704813003540e+00</le></_></splits></_>
        <_>
          <depth>5</depth>
          <value>7.3076923076923073e-01</value>
          <splits>
            <_><var>2</var>
              <quality>1.6409090042114258e+01</quality>
              <le>9.1419732570648193e-01</le></_></splits></_>
        <_>
          <depth>6</depth>
          <value>8.6363636363636365e-01</value></_>
        <_>
          <depth>6</depth>
          <value>0.</value></_>
        <_>
          <depth>5</depth>
          <value>1.</value></_>
        <_>
          <depth>4</depth>
          <value>5.3719008264462809e-01</value>
          <splits>
            <_><var>0</var>
              <quality>3.7770641326904297e+01</quality>
              <le>-5.3428334649652243e-04</le></_></splits></_>
        <_>
          <depth>5</depth>
          <value>1.</value></_>
        <_>
          <depth>5</depth>
          <value>4.8623853211009177e-01</value>
          <splits>
            <_><var>2</var>
              <quality>2.9450128555297852e+01</quality>
              <le>3.4632617235183716e-01</le></_></splits></_>
        <_>
          <depth>6</depth>
          <value>5.6521739130434778e-01</value>
          <splits>
            <_><var>3</var>
              <quality>3.0881038665771484e+01</quality>
              <le>9.9670849740505219e-03</le></_></splits></_>
        <_>
          <depth>7</depth>
          <value>6.3013698630136983e-01</value>
          <splits>
            <_><var>3</var>
              <quality>3.1789474487304688e+01</quality>
              <le>9.5051992684602737e-03</le></_></splits></_>
        <_>
          <depth>8</depth>
          <value>5.2631578947368418e-01</value>
          <splits>
            <_><var>3</var>
              <quality>1.6500000000000000e+01</quality>
              <le>9.1211637482047081e-03</le></_></splits></_>
        <_>
          <depth>9</depth>
          <value>5.7142857142857140e-01</value>
          <splits>
            <_><var>5</var>
              <quality>1.6972427368164062e+01</quality>
              <le>-3.1383163295686245e-03</le></_></splits></_>
        <_>
          <depth>10</depth>
          <value>7.6470588235294112e-01</value></_>
        <_>
          <depth>10</depth>
          <value>4.6875000000000000e-01</value>
          <splits>
            <_><var>5</var>
              <quality>8.2916669845581055e+00</quality>
              <le>-2.9017073102295399e-03</le></_></splits></_>
        <_>
          <depth>11</depth>
          <value>1.2500000000000000e-01</value></_>
        <_>
          <depth>11</depth>
          <value>5.8333333333333337e-01</value></_>
        <_>
          <depth>9</depth>
          <value>2.5000000000000000e-01</value></_>
        <_>
          <depth>8</depth>
          <value>1.</value></_>
        <_>
          <depth>7</depth>
          <value>3.1578947368421051e-01</value></_>
        <_>
          <depth>6</depth>
          <value>5.8823529411764705e-02</value></_>
        <_>
          <depth>1</depth>
          <value>2.1841541755888652e-01</value>
          <splits>
            <_><var>1</var>
              <quality>2.4888078689575195e+01</quality>
              <le>-1.0730375349521637e-01</le></_></splits></_>
        <_>
          <depth>2</depth>
          <value>3.2098765432098764e-01</value>
          <splits>
            <_><var>5</var>
              <quality>2.0918478012084961e+01</quality>
              <le>-2.8205481357872486e-03</le></_></splits></_>
        <_>
          <depth>3</depth>
          <value>7.0833333333333337e-01</value></_>
        <_>
          <depth>3</depth>
          <value>2.5362318840579712e-01</value>
          <splits>
            <_><var>0</var>
              <quality>1.0269565582275391e+01</quality>
              <le>-1.0994990589097142e-04</le></_></splits></_>
        <_>
          <depth>4</depth>
          <value>4.7826086956521741e-01</value></_>
        <_>
          <depth>4</depth>
          <value>2.0869565217391303e-01</value>
          <splits>
            <_><var>6</var>
              <quality>6.8195877075195312e+00</quality>
              <le>1.0028883218765259e+00</le></_></splits></_>
        <_>
          <depth>5</depth>
          <value>1.5463917525773196e-01</value>
          <splits>
            <_><var>1</var>
              <quality>3.0191814899444580e+00</quality>
              <le>-1.9601967930793762e-01</le></_></splits></_>
        <_>
          <depth>6</depth>
          <value>6.5217391304347824e-02</value>
          <splits>
            <_><var>0</var>
              <quality>1.</quality>
              <le>-7.6594325946643949e-05</le></_></splits></_>
        <_>
          <depth>7</depth>
          <value>3.3333333333333331e-01</value></_>
        <_>
          <depth>7</depth>
          <value>0.</value></_>
        <_>
          <depth>6</depth>
          <value>2.3529411764705882e-01</value>
          <splits>
            <_><var>5</var>
              <quality>4.7243590354919434e+00</quality>
              <le>-1.8233044538646936e-03</le></_></splits></_>
        <_>
          <depth>7</depth>
          <value>1.2820512820512819e-01</value>
          <splits>
            <_><var>4</var>
              <quality>1.2500000000000000e+00</quality>
              <le>-1.1744699627161026e-01</le></_></splits></_>
        <_>
          <depth>8</depth>
          <value>0.</value></_>
        <_>
          <depth>8</depth>
          <value>2.5000000000000000e-01</value></_>
        <_>
          <depth>7</depth>
          <value>5.8333333333333337e-01</value></_>
        <_>
          <depth>5</depth>
          <value>5.0000000000000000e-01</value></_>
        <_>
          <depth>2</depth>
          <value>1.6393442622950818e-01</value>
          <splits>
            <_><var>3</var>
              <quality>9.2219610214233398e+00</quality>
              <le>5.3277045488357544e-02</le></_></splits></_>
        <_>
          <depth>3</depth>
          <value>1.8773946360153257e-01</value>
          <splits>
            <_><var>6</var>
              <quality>1.6727975845336914e+01</quality>
              <le>9.9986225366592407e-01</le></_></splits></_>
        <_>
          <depth>4</depth>
          <value>7.6190476190476186e-01</value></_>
        <_>
          <depth>4</depth>
          <value>1.3750000000000001e-01</value>
          <splits>
            <_><var>0</var>
              <quality>7.1100001335144043e+00</quality>
              <le>-6.7819652031175792e-05</le></_></splits></_>
        <_>
          <depth>5</depth>
          <value>2.6000000000000001e-01</value>
          <splits>
            <_><var>6</var>
              <quality>8.5749998092651367e+00</quality>
              <le>1.0019247531890869e+00</le></_></splits></_>
        <_>
          <depth>6</depth>
          <value>1.4999999999999999e-01</value>
          <splits>
            <_><var>1</var>
              <quality>2.2142856121063232e+00</quality>
              <le>-2.5309823453426361e-02</le></_></splits></_>
        <_>
          <depth>7</depth>
          <value>7.1428571428571425e-02</value>
          <splits>
            <_><var>6</var>
              <quality>3.7500000000000000e-01</quality>
              <le>1.0015666484832764e+00</le></_></splits></_>
        <_>
          <depth>8</depth>
          <value>1.2500000000000000e-01</value></_>
        <_>
          <depth>8</depth>
          <value>0.</value></_>
        <_>
          <depth>7</depth>
          <value>3.3333333333333331e-01</value></_>
        <_>
          <depth>6</depth>
          <value>4.2499999999999999e-01</value>
          <splits>
            <_><var>3</var>
              <quality>1.1449999809265137e+01</quality>
              <le>1.5330134890973568e-02</le></_></splits></_>
        <_>
          <depth>7</depth>
          <value>1.0000000000000001e-01</value></_>
        <_>
          <depth>7</depth>
          <value>7.5000000000000000e-01</value></_>
        <_>
          <depth>5</depth>
          <value>5.0000000000000003e-02</value>
          <splits>
            <_><var>5</var>
              <quality>5.9230768680572510e-01</quality>
              <le>-2.9057906940579414e-03</le></_></splits></_>
        <_>
          <depth>6</depth>
          <value>3.8461538461538464e-02</value>
          <splits>
            <_><var>0</var>
              <quality>3.4492754936218262e-01</quality>
              <le>-5.4749478294979781e-05</le></_></splits></_>
        <_>
          <depth>7</depth>
          <value>1.3333333333333333e-01</value></_>
        <_>
          <depth>7</depth>
          <value>2.6086956521739129e-02</value>
          <splits>
            <_><var>5</var>
              <quality>1.4955894649028778e-01</quality>
              <le>-4.7640288248658180e-03</le></_></splits></_>
        <_>
          <depth>8</depth>
          <value>1.1627906976744186e-02</value>
          <splits>
            <_><var>2</var>
              <quality>2.4390242993831635e-02</quality>
              <le>1.8762081861495972e-02</le></_></splits></_>
        <_>
          <depth>9</depth>
          <value>2.4390243902439025e-02</value>
          <splits>
            <_><var>1</var>
              <quality>1.</quality>
              <le>-2.3648042231798172e-02</le></_></splits></_>
        <_>
          <depth>10</depth>
          <value>1.</value></_>
        <_>
          <depth>10</depth>
          <value>0.</value></_>
        <_>
          <depth>9</depth>
          <value>0.</value></_>
        <_>
          <depth>8</depth>
          <value>6.8965517241379309e-02</value>
          <splits>
            <_><var>3</var>
              <quality>2.</quality>
              <le>1.3678426854312420e-02</le></_></splits></_>
        <_>
          <depth>9</depth>
          <value>0.</value></_>
        <_>
          <depth>9</depth>
          <value>1.</value></_>
        <_>
          <depth>6</depth>
          <value>2.0000000000000001e-01</value></_>
        <_>
          <depth>3</depth>
          <value>2.2727272727272728e-02</value>
          <splits>
            <_><var>2</var>
              <quality>1.6666667163372040e-01</quality>
              <le>6.4193820580840111e-03</le></_></splits></_>
        <_>
          <depth>4</depth>
          <value>0.</value></_>
        <_>
          <depth>4</depth>
          <value>1.6666666666666666e-01</value></_></nodes></_>
    <_>
      <nodes>
        <_>
          <depth>0</depth>
          <value>4.2543352601156070e-01</value>
          <splits>
            <_><var>0</var>
              <quality>2.1417210388183594e+02</quality>
              <le>-1.7169522470794618e-04</le></_></splits></_>
        <_>
          <depth>1</depth>
          <value>7.2677595628415304e-01</value>
          <splits>
            <_><var>5</var>
              <quality>1.9987570190429688e+02</quality>
              <le>-3.1324516981840134e-02</le></_></splits></_>
        <_>
          <depth>2</depth>
          <value>0.</value></_>
        <_>
          <depth>2</depth>
          <value>7.5141242937853103e-01</value>
          <splits>
            <_><var>3</var>
              <quality>2.0160646057128906e+02</quality>
              <le>1.0649922303855419e-02</le></_></splits></_>
        <_>
          <depth>3</depth>
          <value>6.6891891891891897e-01</value>
          <splits>
            <_><var>4</var>
              <quality>6.9337471008300781e+01</quality>
              <le>-1.9476188719272614e-01</le></_></splits></_>
        <_>
          <depth>4</depth>
          <value>7.4358974358974361e-01</value>
          <splits>
            <_><var>0</var>
              <quality>6.5470108032226562e+01</quality>
              <le>-2.8075178852304816e-04</le></_></splits></_>
        <_>
          <depth>5</depth>
          <value>8.1159420289855078e-01</value>
          <splits>
            <_><var>2</var>
              <quality>4.6087303161621094e+01</quality>
              <le>9.3994712829589844e-01</le></_></splits></_>
        <_>
          <depth>6</depth>
          <value>8.4126984126984128e-01</value>
          <splits>
            <_><var>6</var>
              <quality>4.4886791229248047e+01</quality>
              <le>1.0027852058410645e+00</le></_></splits></_>
        <_>
          <depth>7</depth>
          <value>8.1132075471698117e-01</value>
          <splits>
            <_><var>6</var>
              <quality>3.6254901885986328e+01</quality>
              <le>1.0027439594268799e+00</le></_></splits></_>
        <_>
          <depth>8</depth>
          <value>8.4313725490196079e-01</value>
          <splits>
            <_><var>0</var>
              <quality>3.6684211730957031e+01</quality>
              <le>-3.5028310958296061e-04</le></_></splits></_>
        <_>
          <depth>9</depth>
          <value>7.8947368421052633e-01</value>
          <splits>
            <_><var>0</var>
              <quality>25.</quality>
              <le>-3.7308930768631399e-04</le></_></splits></_>
        <_>
          <depth>10</depth>
          <value>8.3333333333333337e-01</value>
          <splits>
            <_><var>0</var>
              <quality>2.5333333969116211e+01</quality>
              <le>-4.3597532203420997e-04</le></_></splits></_>
        <_>
          <depth>11</depth>
          <value>7.7777777777777779e-01</value>
          <splits>
            <_><var>0</var>
              <quality>1.8375000000000000e+01</quality>
              <le>-4.5356305781751871e-04</le></_></splits></_>
        <_>
          <depth>12</depth>
          <value>8.7500000000000000e-01</value></_>
        <_>
          <depth>12</depth>
          <value>0.</value></_>
        <_>
          <depth>11</depth>
          <value>1.</value></_>
        <_>
          <depth>10</depth>
          <value>0.</value></_>
        <_>
          <depth>9</depth>
          <value>1.</value></_>
        <_>
          <depth>8</depth>
          <value>0.</value></_>
        <_>
          <depth>7</depth>
          <value>1.</value></_>
        <_>
          <depth>6</depth>
          <value>5.0000000000000000e-01</value></_>
        <_>
          <depth>5</depth>
          <value>6.4583333333333337e-01</value>
          <splits>
            <_><var>5</var>
              <quality>2.1824241638183594e+01</quality>
              <le>-2.0971950143575668e-03</le></_></splits></_>
        <_>
          <depth>6</depth>
          <value>5.1515151515151514e-01</value>
          <splits>
            <_><var>1</var>
              <quality>1.1560000419616699e+01</quality>
              <le>-3.6483061313629150e-01</le></_></splits></_>
        <_>
          <depth>7</depth>
          <value>0.</value></_>
        <_>
          <depth>7</depth>
          <value>6.8000000000000005e-01</value></_>
        <_>
          <depth>6</depth>
          <value>9.3333333333333335e-01</value></_>
        <_>
          <depth>4</depth>
          <value>3.8709677419354838e-01</value>
          <splits>
            <_><var>3</var>
              <quality>6.3151259422302246e+00</quality>
              <le>9.6617415547370911e-03</le></_></splits></_>
        <_>
          <depth>5</depth>
          <value>1.7647058823529413e-01</value></_>
        <_>
          <depth>5</depth>
          <value>6.4285714285714290e-01</value></_>
        <_>
          <depth>3</depth>
          <value>8.1067961165048541e-01</value>
          <splits>
            <_><var>2</var>
              <quality>1.3626631164550781e+02</quality>
              <le>1.4018782973289490e-01</le></_></splits></_>
        <_>
          <depth>4</depth>
          <value>7.8804347826086951e-01</value>
          <splits>
            <_><var>2</var>
              <quality>1.1561587524414062e+02</quality>
              <le>9.8525956273078918e-02</le></_></splits></_>
        <_>
          <depth>5</depth>
          <value>8.2278481012658233e-01</value>
          <splits>
            <_><var>0</var>
              <quality>1.0933661651611328e+02</quality>
              <le>-2.3712893016636372e-04</le></_></splits></_>
        <_>
          <depth>6</depth>
          <value>8.9655172413793105e-01</value>
          <splits>
            <_><var>5</var>
              <quality>9.4028831481933594e+01</quality>
              <le>-8.2791494205594063e-03</le></_></splits></_>
        <_>
          <depth>7</depth>
          <value>9.1743119266055051e-01</value>
          <splits>
            <_><var>5</var>
              <quality>9.2241882324218750e+01</quality>
              <le>-1.9064491614699364e-02</le></_></splits></_>
        <_>
          <depth>8</depth>
          <value>8.1250000000000000e-01</value>
          <splits>
            <_><var>6</var>
              <quality>2.1806451797485352e+01</quality>
              <le>1.0003099441528320e+00</le></_></splits></_>
        <_>
          <depth>9</depth>
          <value>8.3870967741935487e-01</value>
          <splits>
            <_><var>2</var>
              <quality>2.2012605667114258e+01</quality>
              <le>2.8687814250588417e-02</le></_></splits></_>
        <_>
          <depth>10</depth>
          <value>9.2857142857142860e-01</value></_>
        <_>
          <depth>10</depth>
          <value>7.6470588235294112e-01</value></_>
        <_>
          <depth>9</depth>
          <value>0.</value></_>
        <_>
          <depth>8</depth>
          <value>9.6103896103896103e-01</value>
          <splits>
            <_><var>6</var>
              <quality>7.1191490173339844e+01</quality>
              <le>1.0011065006256104e+00</le></_></splits></_>
        <_>
          <depth>9</depth>
          <value>1.</value>
          <splits>
            <_><var>3</var>
              <quality>30.</quality>
              <le>2.1203113719820976e-02</le></_></splits></_>
        <_>
          <depth>10</depth>
          <value>1.</value></_>
        <_>
          <depth>10</depth>
          <value>1.</value>
          <splits>
            <_><var>6</var>
              <quality>29.</quality>
              <le>1.0004206895828247e+00</le></_></splits></_>
        <_>
          <depth>11</depth>
          <value>1.</value></_>
        <_>
          <depth>11</depth>
          <value>1.</value>
          <splits>
            <_><var>2</var>
              <quality>28.</quality>
              <le>3.0878070741891861e-02</le></_></splits></_>
        <_>
          <depth>12</depth>
          <value>1.</value></_>
        <_>
          <depth>12</depth>
          <value>1.</value>
          <splits>
            <_><var>6</var>
              <quality>26.</quality>
              <le>1.0005416870117188e+00</le></_></splits></_>
        <_>
          <depth>13</depth>
          <value>1.</value></_>
        <_>
          <depth>13</depth>
          <value>1.</value></_>
        <_>
          <depth>9</depth>
          <value>9.3617021276595747e-01</value>
          <splits>
            <_><var>2</var>
              <quality>4.1361904144287109e+01</quality>
              <le>5.5637769401073456e-02</le></_></splits></_>
        <_>
          <depth>10</depth>
          <value>8.3333333333333337e-01</value></_>
        <_>
          <depth>10</depth>
          <value>9.7142857142857142e-01</value>
          <splits>
            <_><var>0</var>
              <quality>3.3071430206298828e+01</quality>
              <le>-3.3077877014875412e-04</le></_></splits></_>
        <_>
          <depth>11</depth>
          <value>1.</value></_>
        <_>
          <depth>11</depth>
          <value>9.2857142857142860e-01</value></_>
        <_>
          <depth>7</depth>
          <value>5.7142857142857140e-01</value></_>
        <_>
          <depth>6</depth>
          <value>6.1904761904761907e-01</value>
          <splits>
            <_><var>0</var>
              <quality>1.8933687210083008e+01</quality>
              <le>-2.1878728875890374e-04</le></_></splits></_>
        <_>
          <depth>7</depth>
          <value>2.3076923076923078e-01</value></_>
        <_>
          <depth>7</depth>
          <value>7.9310344827586210e-01</value>
          <splits>
            <_><var>4</var>
              <quality>1.8892856597900391e+01</quality>
              <le>-1.4808639883995056e-02</le></_></splits></_>
        <_>
          <depth>8</depth>
          <value>8.2142857142857140e-01</value>
          <splits>
            <_><var>2</var>
              <quality>1.9666666030883789e+01</quality>
              <le>2.0061809569597244e-02</le></_></splits></_>
        <_>
          <depth>9</depth>
          <value>1.</value></_>
        <_>
          <depth>9</depth>
          <value>6.6666666666666663e-01</value></_>
        <_>
          <depth>8</depth>
          <value>0.</value></_>
        <_>
          <depth>5</depth>
          <value>5.7692307692307687e-01</value>
          <splits>
            <_><var>5</var>
              <quality>1.1250000000000000e+01</quality>
              <le>-1.1225690133869648e-02</le></_></splits></_>
        <_>
          <depth>6</depth>
          <value>0.</value></_>
        <_>
          <depth>6</depth>
          <value>7.5000000000000000e-01</value></_>
        <_>
          <depth>4</depth>
          <value>1.</value></_>
        <_>
          <depth>1</depth>
          <value>2.0440881763527055e-01</value>
          <splits>
            <_><var>0</var>
              <quality>2.8674829483032227e+01</quality>
              <le>-7.2731359978206456e-05</le></_></splits></_>
        <_>
          <depth>2</depth>
          <value>3.5071090047393366e-01</value>
          <splits>
            <_><var>6</var>
              <quality>2.6975370407104492e+01</quality>
              <le>9.9719792604446411e-01</le></_></splits></_>
        <_>
          <depth>3</depth>
          <value>0.</value></_>
        <_>
          <depth>3</depth>
          <value>3.6453201970443350e-01</value>
          <splits>
            <_><var>1</var>
              <quality>2.8204999923706055e+01</quality>
              <le>-1.3227775692939758e-02</le></_></splits></_>
        <_>
          <depth>4</depth>
          <value>3.5499999999999998e-01</value>
          <splits>
            <_><var>1</var>
              <quality>2.6260972976684570e+01</quality>
              <le>-2.9956996440887451e-01</le></_></splits></_>
        <_>
          <depth>5</depth>
          <value>1.4285714285714285e-01</value></_>
        <_>
          <depth>5</depth>
          <value>3.7988826815642457e-01</value>
          <splits>
            <_><var>4</var>
              <quality>2.7405714035034180e+01</quality>
              <le>-2.0094111561775208e-01</le></_></splits></_>
        <_>
          <depth>6</depth>
          <value>1.</value></_>
        <_>
          <depth>6</depth>
          <value>3.6571428571428571e-01</value>
          <splits>
            <_><var>1</var>
              <quality>2.4532268524169922e+01</quality>
              <le>-3.3960700035095215e-02</le></_></splits></_>
        <_>
          <depth>7</depth>
          <value>4.1221374045801529e-01</value>
          <splits>
            <_><var>3</var>
              <quality>2.4665105819702148e+01</quality>
              <le>1.5246216207742691e-02</le></_></splits></_>
        <_>
          <depth>8</depth>
          <value>2.8571428571428570e-01</value>
          <splits>
            <_><var>5</var>
              <quality>8.</quality>
              <le>-5.7380464859306812e-03</le></_></splits></_>
        <_>
          <depth>9</depth>
          <value>0.</value></_>
        <_>
          <depth>9</depth>
          <value>4.0000000000000002e-01</value>
          <splits>
            <_><var>1</var>
              <quality>8.7202377319335938e+00</quality>
              <le>-2.3641404509544373e-01</le></_></splits></_>
        <_>
          <depth>10</depth>
          <value>1.2500000000000000e-01</value></_>
        <_>
          <depth>10</depth>
          <value>4.5238095238095238e-01</value>
          <splits>
            <_><var>6</var>
              <quality>9.7214078903198242e+00</quality>
              <le>1.0026495456695557e+00</le></_></splits></_>
        <_>
          <depth>11</depth>
          <value>3.5483870967741937e-01</value>
          <splits>
            <_><var>3</var>
              <quality>6.0500001907348633e+00</quality>
              <le>1.0565654374659061e-02</le></_></splits></_>
        <_>
          <depth>12</depth>
          <value>0.</value></_>
        <_>
          <depth>12</depth>
          <value>5.5000000000000004e-01</value></_>
        <_>
          <depth>11</depth>
          <value>7.2727272727272729e-01</value></_>
        <_>
          <depth>8</depth>
          <value>5.5737704918032782e-01</value>
          <splits>
            <_><var>5</var>
              <quality>2.2022628784179688e+01</quality>
              <le>-9.0336352586746216e-03</le></_></splits></_>
        <_>
          <depth>9</depth>
          <value>3.4375000000000000e-01</value>
          <splits>
            <_><var>6</var>
              <quality>1.0045454978942871e+01</quality>
              <le>1.0015666484832764e+00</le></_></splits></_>
        <_>
          <depth>10</depth>
          <value>1.</value></_>
        <_>
          <depth>10</depth>
          <value>4.5454545454545456e-02</value></_>
        <_>
          <depth>9</depth>
          <value>7.9310344827586210e-01</value>
          <splits>
            <_><var>6</var>
              <quality>1.9250000000000000e+01</quality>
              <le>1.0020606517791748e+00</le></_></splits></_>
        <_>
          <depth>10</depth>
          <value>1.</value></_>
        <_>
          <depth>10</depth>
          <value>6.2500000000000000e-01</value></_>
        <_>
          <depth>7</depth>
          <value>2.2727272727272727e-01</value>
          <splits>
            <_><var>5</var>
              <quality>4.7619047164916992e+00</quality>
              <le>-1.9628567621111870e-02</le></_></splits></_>
        <_>
          <depth>8</depth>
          <value>4.7619047619047616e-01</value></_>
        <_>
          <depth>8</depth>
          <value>0.</value></_>
        <_>
          <depth>4</depth>
          <value>1.</value></_>
        <_>
          <depth>2</depth>
          <value>9.7222222222222224e-02</value>
          <splits>
            <_><var>4</var>
              <quality>3.9036250114440918e+00</quality>
              <le>-2.6153194904327393e-01</le></_></splits></_>
        <_>
          <depth>3</depth>
          <value>3.5294117647058826e-01</value></_>
        <_>
          <depth>3</depth>
          <value>8.1180811808118078e-02</value>
          <splits>
            <_><var>0</var>
              <quality>2.0893616676330566e+00</quality>
              <le>-7.8096409197314642e-06</le></_></splits></_>
        <_>
          <depth>4</depth>
          <value>6.8085106382978725e-02</value>
          <splits>
            <_><var>3</var>
              <quality>1.4178378582000732e+00</quality>
              <le>7.6542454771697521e-03</le></_></splits></_>
        <_>
          <depth>5</depth>
          <value>1.4000000000000001e-01</value>
          <splits>
            <_><var>3</var>
              <quality>2.5208332538604736e+00</quality>
              <le>7.4962312355637550e-03</le></_></splits></_>
        <_>
          <depth>6</depth>
          <value>1.0416666666666667e-01</value>
          <splits>
            <_><var>0</var>
              <quality>8.6206895112991333e-01</quality>
              <le>-3.1258132366929203e-05</le></_></splits></_>
        <_>
          <depth>7</depth>
          <value>0.</value></_>
        <_>
          <depth>7</depth>
          <value>1.7241379310344829e-01</value>
          <splits>
            <_><var>4</var>
              <quality>1.6526315212249756e+00</quality>
              <le>-1.5171816945075989e-01</le></_></splits></_>
        <_>
          <depth>8</depth>
          <value>5.2631578947368418e-02</value></_>
        <_>
          <depth>8</depth>
          <value>4.0000000000000002e-01</value></_>
        <_>
          <depth>6</depth>
          <value>1.</value></_>
        <_>
          <depth>5</depth>
          <value>4.8648648648648651e-02</value>
          <splits>
            <_><var>0</var>
              <quality>6.7199999094009399e-01</quality>
              <le>-4.9184793169843033e-05</le></_></splits></_>
        <_>
          <depth>6</depth>
          <value>1.0000000000000001e-01</value>
          <splits>
            <_><var>0</var>
              <quality>1.4237288236618042e+00</quality>
              <le>-4.9834634410217404e-05</le></_></splits></_>
        <_>
          <depth>7</depth>
          <value>8.4745762711864403e-02</value>
          <splits>
            <_><var>4</var>
              <quality>6.7567569017410278e-01</quality>
              <le>-9.1151490807533264e-02</le></_></splits></_>
        <_>
          <depth>8</depth>
          <value>0.</value></_>
        <_>
          <depth>8</depth>
          <value>1.3513513513513514e-01</value>
          <splits>
            <_><var>1</var>
              <quality>1.4444444179534912e+00</quality>
              <le>-1.0827014595270157e-01</le></_></splits></_>
        <_>
          <depth>9</depth>
          <value>1.</value></_>
        <_>
          <depth>9</depth>
          <value>1.1111111111111110e-01</value>
          <splits>
            <_><var>3</var>
              <quality>6.3999998569488525e-01</quality>
              <le>3.3631797879934311e-02</le></_></splits></_>
        <_>
          <depth>10</depth>
          <value>1.6000000000000000e-01</value></_>
        <_>
          <depth>10</depth>
          <value>0.</value></_>
        <_>
          <depth>7</depth>
          <value>1.</value></_>
        <_>
          <depth>6</depth>
          <value>2.4000000000000000e-02</value>
          <splits>
            <_><var>6</var>
              <quality>1.0325477272272110e-01</quality>
              <le>1.0013444423675537e+00</le></_></splits></_>
        <_>
          <depth>7</depth>
          <value>4.5454545454545456e-02</value>
          <splits>
            <_><var>4</var>
              <quality>1.0232558250427246e+00</quality>
              <le>-1.3873207382857800e-02</le></_></splits></_>
        <_>
          <depth>8</depth>
          <value>1.</value></_>
        <_>
          <depth>8</depth>
          <value>2.3255813953488372e-02</value>
          <splits>
            <_><var>0</var>
              <quality>2.5000000000000000e-01</quality>
              <le>-1.5623327271896414e-05</le></_></splits></_>
        <_>
          <depth>9</depth>
          <value>0.</value></_>
        <_>
          <depth>9</depth>
          <value>2.5000000000000000e-01</value></_>
        <_>
          <depth>7</depth>
          <value>1.2345679012345678e-02</value>
          <splits>
            <_><var>3</var>
              <quality>5.0000000745058060e-02</quality>
              <le>9.7849927842617035e-03</le></_></splits></_>
        <_>
          <depth>8</depth>
          <value>5.0000000000000003e-02</value></_>
        <_>
          <depth>8</depth>
          <value>0.</value></_>
        <_>
          <depth>4</depth>
          <value>1.6666666666666666e-01</value>
          <splits>
            <_><var>5</var>
              <quality>1.8181818723678589e+00</quality>
              <le>-2.3329583927989006e-02</le></_></splits></_>
        <_>
          <depth>5</depth>
          <value>6.6666666666666663e-01</value></_>
        <_>
          <depth>5</depth>
          <value>1.2121212121212122e-01</value>
          <splits>
            <_><var>2</var>
              <quality>9.4117647409439087e-01</quality>
              <le>1.8150631338357925e-02</le></_></splits></_>
        <_>
          <depth>6</depth>
          <value>0.</value></_>
        <_>
          <depth>6</depth>
          <value>2.3529411764705882e-01</value></_></nodes></_>
    <_>
      <nodes>
        <_>
          <depth>0</depth>
          <value>4.3352601156069365e-01</value>
          <splits>
            <_><var>1</var>
              <quality>1.7938270568847656e+02</quality>
              <le>-3.6176025867462158e-02</le></_></splits></_>
        <_>
          <depth>1</depth>
          <value>5.1643192488262912e-01</value>
          <splits>
            <_><var>5</var>
              <quality>1.8528889465332031e+02</quality>
              <le>-6.0307383537292480e-03</le></_></splits></_>
        <_>
          <depth>2</depth>
          <value>7.2052401746724892e-01</value>
          <splits>
            <_><var>4</var>
              <quality>1.2230684661865234e+02</quality>
              <le>-5.0520196557044983e-02</le></_></splits></_>
        <_>
          <depth>3</depth>
          <value>8.3199999999999996e-01</value>
          <splits>
            <_><var>3</var>
              <quality>8.8776870727539062e+01</quality>
              <le>1.5330513939261436e-02</le></_></splits></_>
        <_>
          <depth>4</depth>
          <value>6.7307692307692313e-01</value>
          <splits>
            <_><var>0</var>
              <quality>2.7222221374511719e+01</quality>
              <le>-1.6177218640223145e-04</le></_></splits></_>
        <_>
          <depth>5</depth>
          <value>7.7777777777777779e-01</value>
          <splits>
            <_><var>6</var>
              <quality>2.7809999465942383e+01</quality>
              <le>1.0020844936370850e+00</le></_></splits></_>
        <_>
          <depth>6</depth>
          <value>6.5000000000000002e-01</value></_>
        <_>
          <depth>6</depth>
          <value>8.8000000000000000e-01</value></_>
        <_>
          <depth>5</depth>
          <value>0.</value></_>
        <_>
          <depth>4</depth>
          <value>9.4520547945205480e-01</value>
          <splits>
            <_><var>3</var>
              <quality>6.6514923095703125e+01</quality>
              <le>2.3177752271294594e-02</le></_></splits></_>
        <_>
          <depth>5</depth>
          <value>9.8507462686567160e-01</value>
          <splits>
            <_><var>5</var>
              <quality>6.5047622680664062e+01</quality>
              <le>-1.0359182953834534e-02</le></_></splits></_>
        <_>
          <depth>6</depth>
          <value>1.</value>
          <splits>
            <_><var>3</var>
              <quality>46.</quality>
              <le>1.6524784266948700e-02</le></_></splits></_>
        <_>
          <depth>7</depth>
          <value>1.</value></_>
        <_>
          <depth>7</depth>
          <value>1.</value>
          <splits>
            <_><var>0</var>
              <quality>43.</quality>
              <le>-9.2057767324149609e-04</le></_></splits></_>
        <_>
          <depth>8</depth>
          <value>1.</value></_>
        <_>
          <depth>8</depth>
          <value>1.</value>
          <splits>
            <_><var>5</var>
              <quality>42.</quality>
              <le>-1.8567048013210297e-02</le></_></splits></_>
        <_>
          <depth>9</depth>
          <value>1.</value></_>
        <_>
          <depth>9</depth>
          <value>1.</value>
          <splits>
            <_><var>2</var>
              <quality>41.</quality>
              <le>5.3176335990428925e-02</le></_></splits></_>
        <_>
          <depth>10</depth>
          <value>1.</value></_>
        <_>
          <depth>10</depth>
          <value>1.</value>
          <splits>
            <_><var>6</var>
              <quality>39.</quality>
              <le>1.0005466938018799e+00</le></_></splits></_>
        <_>
          <depth>11</depth>
          <value>1.</value></_>
        <_>
          <depth>11</depth>
          <value>1.</value>
          <splits>
            <_><var>6</var>
              <quality>37.</quality>
              <le>1.0005952119827271e+00</le></_></splits></_>
        <_>
          <depth>12</depth>
          <value>1.</value></_>
        <_>
          <depth>12</depth>
          <value>1.</value>
          <splits>
            <_><var>6</var>
              <quality>35.</quality>
              <le>1.0006227493286133e+00</le></_></splits></_>
        <_>
          <depth>13</depth>
          <value>1.</value></_>
        <_>
          <depth>13</depth>
          <value>1.</value>
          <splits>
            <_><var>6</var>
              <quality>34.</quality>
              <le>1.0008115768432617e+00</le></_></splits></_>
        <_>
          <depth>14</depth>
          <value>1.</value></_>
        <_>
          <depth>14</depth>
          <value>1.</value>
          <splits>
            <_><var>3</var>
              <quality>33.</quality>
              <le>1.6637815162539482e-02</le></_></splits></_>
        <_>
          <depth>15</depth>
          <value>1.</value></_>
        <_>
          <depth>15</depth>
          <value>1.</value>
          <splits>
            <_><var>3</var>
              <quality>31.</quality>
              <le>1.6975175589323044e-02</le></_></splits></_>
        <_>
          <depth>16</depth>
          <value>1.</value></_>
        <_>
          <depth>16</depth>
          <value>1.</value>
          <splits>
            <_><var>3</var>
              <quality>30.</quality>
              <le>1.7328472808003426e-02</le></_></splits></_>
        <_>
          <depth>17</depth>
          <value>1.</value></_>
        <_>
          <depth>17</depth>
          <value>1.</value>
          <splits>
            <_><var>1</var>
              <quality>29.</quality>
              <le>-1.2459795176982880e-01</le></_></splits></_>
        <_>
          <depth>18</depth>
          <value>1.</value></_>
        <_>
          <depth>18</depth>
          <value>1.</value>
          <splits>
            <_><var>1</var>
              <quality>28.</quality>
              <le>-1.1446243524551392e-01</le></_></splits></_>
        <_>
          <depth>19</depth>
          <value>1.</value></_>
        <_>
          <depth>19</depth>
          <value>1.</value>
          <splits>
            <_><var>0</var>
              <quality>26.</quality>
              <le>-5.6247890461236238e-04</le></_></splits></_>
        <_>
          <depth>20</depth>
          <value>1.</value></_>
        <_>
          <depth>20</depth>
          <value>1.</value></_>
        <_>
          <depth>6</depth>
          <value>9.5238095238095233e-01</value></_>
        <_>
          <depth>5</depth>
          <value>5.0000000000000000e-01</value></_>
        <_>
          <depth>3</depth>
          <value>5.8653846153846156e-01</value>
          <splits>
            <_><var>6</var>
              <quality>3.9250000000000000e+01</quality>
              <le>1.0015804767608643e+00</le></_></splits></_>
        <_>
          <depth>4</depth>
          <value>7.6923076923076927e-01</value>
          <splits>
            <_><var>3</var>
              <quality>3.2457141876220703e+01</quality>
              <le>3.1752750277519226e-02</le></_></splits></_>
        <_>
          <depth>5</depth>
          <value>8.5714285714285710e-01</value>
          <splits>
            <_><var>4</var>
              <quality>3.1285715103149414e+01</quality>
              <le>-3.5050351172685623e-02</le></_></splits></_>
        <_>
          <depth>6</depth>
          <value>7.8571428571428570e-01</value>
          <splits>
            <_><var>1</var>
              <quality>1.7988304138183594e+01</quality>
              <le>-5.0695873796939850e-02</le></_></splits></_>
        <_>
          <depth>7</depth>
          <value>8.9473684210526316e-01</value></_>
        <_>
          <depth>7</depth>
          <value>5.5555555555555558e-01</value></_>
        <_>
          <depth>6</depth>
          <value>1.</value></_>
        <_>
          <depth>5</depth>
          <value>4.0000000000000002e-01</value></_>
        <_>
          <depth>4</depth>
          <value>4.0384615384615385e-01</value>
          <splits>
            <_><var>0</var>
              <quality>1.0839869499206543e+01</quality>
              <le>-1.1125179298687726e-04</le></_></splits></_>
        <_>
          <depth>5</depth>
          <value>1.1111111111111110e-01</value></_>
        <_>
          <depth>5</depth>
          <value>5.5882352941176472e-01</value>
          <splits>
            <_><var>5</var>
              <quality>1.2892857551574707e+01</quality>
              <le>-9.1077294200658798e-03</le></_></splits></_>
        <_>
          <depth>6</depth>
          <value>0.</value></_>
        <_>
          <depth>6</depth>
          <value>6.7857142857142860e-01</value>
          <splits>
            <_><var>6</var>
              <quality>1.4764705657958984e+01</quality>
              <le>1.0020599365234375e+00</le></_></splits></_>
        <_>
          <depth>7</depth>
          <value>1.</value></_>
        <_>
          <depth>7</depth>
          <value>4.7058823529411764e-01</value></_>
        <_>
          <depth>2</depth>
          <value>4.0243902439024393e-01</value>
          <splits>
            <_><var>0</var>
              <quality>8.9429100036621094e+01</quality>
              <le>-1.1129067570436746e-04</le></_></splits></_>
        <_>
          <depth>3</depth>
          <value>6.5128205128205130e-01</value>
          <splits>
            <_><var>0</var>
              <quality>8.4515029907226562e+01</quality>
              <le>-1.7169522470794618e-04</le></_></splits></_>
        <_>
          <depth>4</depth>
          <value>7.0469798657718119e-01</value>
          <splits>
            <_><var>5</var>
              <quality>7.5131385803222656e+01</quality>
              <le>-5.3164474666118622e-03</le></_></splits></_>
        <_>
          <depth>5</depth>
          <value>1.</value></_>
        <_>
          <depth>5</depth>
          <value>6.7883211678832112e-01</value>
          <splits>
            <_><var>6</var>
              <quality>6.4281250000000000e+01</quality>
              <le>1.0024154186248779e+00</le></_></splits></_>
        <_>
          <depth>6</depth>
          <value>3.3333333333333331e-01</value></_>
        <_>
          <depth>6</depth>
          <value>7.0312500000000000e-01</value>
          <splits>
            <_><var>6</var>
              <quality>6.4145454406738281e+01</quality>
              <le>1.0025560855865479e+00</le></_></splits></_>
        <_>
          <depth>7</depth>
          <value>8.2499999999999996e-01</value>
          <splits>
            <_><var>2</var>
              <quality>2.8281250000000000e+01</quality>
              <le>1.5928691625595093e-01</le></_></splits></_>
        <_>
          <depth>8</depth>
          <value>5.0000000000000000e-01</value></_>
        <_>
          <depth>8</depth>
          <value>9.0625000000000000e-01</value>
          <splits>
            <_><var>0</var>
              <quality>2.6450000762939453e+01</quality>
              <le>-2.9350927798077464e-04</le></_></splits></_>
        <_>
          <depth>9</depth>
          <value>8.4999999999999998e-01</value></_>
        <_>
          <depth>9</depth>
          <value>1.</value></_>
        <_>
          <depth>7</depth>
          <value>6.4772727272727271e-01</value>
          <splits>
            <_><var>5</var>
              <quality>3.9182052612304688e+01</quality>
              <le>-3.4766457974910736e-03</le></_></splits></_>
        <_>
          <depth>8</depth>
          <value>2.0000000000000001e-01</value></_>
        <_>
          <depth>8</depth>
          <value>7.0512820512820518e-01</value>
          <splits>
            <_><var>4</var>
              <quality>3.9907169342041016e+01</quality>
              <le>-3.0181032419204712e-01</le></_></splits></_>
        <_>
          <depth>9</depth>
          <value>6.2264150943396224e-01</value>
          <splits>
            <_><var>2</var>
              <quality>2.2403726577758789e+01</quality>
              <le>3.3502438664436340e-01</le></_></splits></_>
        <_>
          <depth>10</depth>
          <value>1.4285714285714285e-01</value></_>
        <_>
          <depth>10</depth>
          <value>6.9565217391304346e-01</value>
          <splits>
            <_><var>4</var>
              <quality>2.3025640487670898e+01</quality>
              <le>-3.4632092714309692e-01</le></_></splits></_>
        <_>
          <depth>11</depth>
          <value>6.4102564102564108e-01</value>
          <splits>
            <_><var>4</var>
              <quality>1.7361110687255859e+01</quality>
              <le>-3.5332393646240234e-01</le></_></splits></_>
        <_>
          <depth>12</depth>
          <value>6.9444444444444442e-01</value>
          <splits>
            <_><var>4</var>
              <quality>1.8299999237060547e+01</quality>
              <le>-5.0231242179870605e-01</le></_></splits></_>
        <_>
          <depth>13</depth>
          <value>5.5000000000000004e-01</value></_>
        <_>
          <depth>13</depth>
          <value>8.7500000000000000e-01</value></_>
        <_>
          <depth>12</depth>
          <value>0.</value></_>
        <_>
          <depth>11</depth>
          <value>1.</value></_>
        <_>
          <depth>9</depth>
          <value>8.8000000000000000e-01</value></_>
        <_>
          <depth>4</depth>
          <value>4.7826086956521741e-01</value>
          <splits>
            <_><var>1</var>
              <quality>1.2350000381469727e+01</quality>
              <le>-2.7572098374366760e-01</le></_></splits></_>
        <_>
          <depth>5</depth>
          <value>1.0000000000000001e-01</value></_>
        <_>
          <depth>5</depth>
          <value>5.8333333333333337e-01</value>
          <splits>
            <_><var>4</var>
              <quality>1.3814814567565918e+01</quality>
              <le>-9.7565799951553345e-02</le></_></splits></_>
        <_>
          <depth>6</depth>
          <value>7.0370370370370372e-01</value>
          <splits>
            <_><var>0</var>
              <quality>1.8111110687255859e+01</quality>
              <le>-1.3114397006575018e-04</le></_></splits></_>
        <_>
          <depth>7</depth>
          <value>1.1111111111111110e-01</value></_>
        <_>
          <depth>7</depth>
          <value>1.</value></_>
        <_>
          <depth>6</depth>
          <value>2.2222222222222221e-01</value></_>
        <_>
          <depth>3</depth>
          <value>1.7674418604651163e-01</value>
          <splits>
            <_><var>1</var>
              <quality>9.6825103759765625e+00</quality>
              <le>-2.5293552875518799e-01</le></_></splits></_>
        <_>
          <depth>4</depth>
          <value>3.9583333333333331e-01</value>
          <splits>
            <_><var>5</var>
              <quality>9.0879125595092773e+00</quality>
              <le>-1.0267997859045863e-03</le></_></splits></_>
        <_>
          <depth>5</depth>
          <value>2.8571428571428570e-01</value>
          <splits>
            <_><var>1</var>
              <quality>4.5312500000000000e+00</quality>
              <le>-2.5524562597274780e-01</le></_></splits></_>
        <_>
          <depth>6</depth>
          <value>2.1875000000000000e-01</value>
          <splits>
            <_><var>6</var>
              <quality>2.1612904071807861e+00</quality>
              <le>1.0028139352798462e+00</le></_></splits></_>
        <_>
          <depth>7</depth>
          <value>1.</value></_>
        <_>
          <depth>7</depth>
          <value>1.9354838709677419e-01</value>
          <splits>
            <_><var>3</var>
              <quality>1.9595959186553955e+00</quality>
              <le>4.7606034204363823e-03</le></_></splits></_>
        <_>
          <depth>8</depth>
          <value>4.4444444444444442e-01</value></_>
        <_>
          <depth>8</depth>
          <value>9.0909090909090912e-02</value></_>
        <_>
          <depth>6</depth>
          <value>1.</value></_>
        <_>
          <depth>5</depth>
          <value>6.9230769230769229e-01</value></_>
        <_>
          <depth>4</depth>
          <value>1.1377245508982035e-01</value>
          <splits>
            <_><var>3</var>
              <quality>3.1560528278350830e+00</quality>
              <le>9.7406078130006790e-03</le></_></splits></_>
        <_>
          <depth>5</depth>
          <value>1.9047619047619047e-01</value>
          <splits>
            <_><var>4</var>
              <quality>5.0864195823669434e+00</quality>
              <le>-7.4233859777450562e-02</le></_></splits></_>
        <_>
          <depth>6</depth>
          <value>1.6049382716049382e-01</value>
          <splits>
            <_><var>5</var>
              <quality>2.6825397014617920e+00</quality>
              <le>-1.3317661359906197e-03</le></_></splits></_>
        <_>
          <depth>7</depth>
          <value>2.0634920634920634e-01</value>
          <splits>
            <_><var>0</var>
              <quality>5.3728814125061035e+00</quality>
              <le>-1.2789834727300331e-05</le></_></splits></_>
        <_>
          <depth>8</depth>
          <value>1.5254237288135594e-01</value>
          <splits>
            <_><var>2</var>
              <quality>1.7999999523162842e+00</quality>
              <le>9.4329878687858582e-02</le></_></splits></_>
        <_>
          <depth>9</depth>
          <value>0.</value></_>
        <_>
          <depth>9</depth>
          <value>2.0000000000000001e-01</value>
          <splits>
            <_><var>1</var>
              <quality>3.8250000476837158e+00</quality>
              <le>-1.3718715310096741e-01</le></_></splits></_>
        <_>
          <depth>10</depth>
          <value>1.2500000000000000e-01</value>
          <splits>
            <_><var>2</var>
              <quality>1.0571428537368774e+00</quality>
              <le>1.6137188673019409e-01</le></_></splits></_>
        <_>
          <depth>11</depth>
          <value>8.5714285714285715e-02</value>
          <splits>
            <_><var>1</var>
              <quality>5.0000000000000000e-01</quality>
              <le>-1.7367807030677795e-01</le></_></splits></_>
        <_>
          <depth>12</depth>
          <value>0.</value></_>
        <_>
          <depth>12</depth>
          <value>1.6666666666666666e-01</value></_>
        <_>
          <depth>11</depth>
          <value>4.0000000000000002e-01</value></_>
        <_>
          <depth>10</depth>
          <value>8.0000000000000004e-01</value></_>
        <_>
          <depth>8</depth>
          <value>1.</value></_>
        <_>
          <depth>7</depth>
          <value>0.</value></_>
        <_>
          <depth>6</depth>
          <value>1.</value></_>
        <_>
          <depth>5</depth>
          <value>3.6144578313253010e-02</value>
          <splits>
            <_><var>1</var>
              <quality>5.8458644151687622e-01</quality>
              <le>-1.0159821808338165e-01</le></_></splits></_>
        <_>
          <depth>6</depth>
          <value>2.8571428571428570e-01</value></_>
        <_>
          <depth>6</depth>
          <value>1.3157894736842105e-02</value>
          <splits>
            <_><var>0</var>
              <quality>3.3333334326744080e-01</quality>
              <le>-8.5208730524755083e-06</le></_></splits></_>
        <_>
          <depth>7</depth>
          <value>0.</value></_>
        <_>
          <depth>7</depth>
          <value>3.3333333333333331e-01</value></_>
        <_>
          <depth>1</depth>
          <value>1.9911504424778761e-01</value>
          <splits>
            <_><var>1</var>
              <quality>1.1761355400085449e+01</quality>
              <le>-1.1701991781592369e-02</le></_></splits></_>
        <_>
          <depth>2</depth>
          <value>2.7215189873417722e-01</value>
          <splits>
            <_><var>5</var>
              <quality>1.8655582427978516e+01</quality>
              <le>-2.0197778940200806e-02</le></_></splits></_>
        <_>
          <depth>3</depth>
          <value>5.2307692307692311e-01</value>
          <splits>
            <_><var>6</var>
              <quality>2.1018182754516602e+01</quality>
              <le>9.9831283092498779e-01</le></_></splits></_>
        <_>
          <depth>4</depth>
          <value>0.</value></_>
        <_>
          <depth>4</depth>
          <value>6.1818181818181817e-01</value>
          <splits>
            <_><var>1</var>
              <quality>2.4455163955688477e+01</quality>
              <le>-2.0592901855707169e-02</le></_></splits></_>
        <_>
          <depth>5</depth>
          <value>9.1304347826086951e-01</value></_>
        <_>
          <depth>5</depth>
          <value>4.0625000000000000e-01</value>
          <splits>
            <_><var>5</var>
              <quality>7.5500001907348633e+00</quality>
              <le>-2.8077749535441399e-02</le></_></splits></_>
        <_>
          <depth>6</depth>
          <value>7.5000000000000000e-01</value></_>
        <_>
          <depth>6</depth>
          <value>2.0000000000000001e-01</value></_>
        <_>
          <depth>3</depth>
          <value>9.6774193548387094e-02</value>
          <splits>
            <_><var>0</var>
              <quality>1.6200000047683716e+00</quality>
              <le>-3.0830517061986029e-05</le></_></splits></_>
        <_>
          <depth>4</depth>
          <value>1.7999999999999999e-01</value>
          <splits>
            <_><var>0</var>
              <quality>3.0208332538604736e+00</quality>
              <le>-3.3423453714931384e-05</le></_></splits></_>
        <_>
          <depth>5</depth>
          <value>1.4583333333333334e-01</value>
          <splits>
            <_><var>0</var>
              <quality>1.5996204614639282e+00</quality>
              <le>-6.1931663367431611e-05</le></_></splits></_>
        <_>
          <depth>6</depth>
          <value>6.4516129032258063e-02</value>
          <splits>
            <_><var>0</var>
              <quality>6.6666668653488159e-01</quality>
              <le>-1.5963644545990974e-04</le></_></splits></_>
        <_>
          <depth>7</depth>
          <value>3.3333333333333331e-01</value></_>
        <_>
          <depth>7</depth>
          <value>0.</value></_>
        <_>
          <depth>6</depth>
          <value>2.9411764705882354e-01</value></_>
        <_>
          <depth>5</depth>
          <value>1.</value></_>
        <_>
          <depth>4</depth>
          <value>0.</value></_>
        <_>
          <depth>2</depth>
          <value>2.9411764705882353e-02</value>
          <splits>
            <_><var>6</var>
              <quality>2.1052631735801697e-01</quality>
              <le>9.9920958280563354e-01</le></_></splits></_>
        <_>
          <depth>3</depth>
          <value>0.</value></_>
        <_>
          <depth>3</depth>
          <value>1.0526315789473684e-01</value></_></nodes></_>
    <_>
      <nodes>
        <_>
          <depth>0</depth>
          <value>4.1156069364161851e-01</value>
          <splits>
            <_><var>1</var>
              <quality>1.6122988891601562e+02</quality>
              <le>-4.2576022446155548e-02</le></_></splits></_>
        <_>
          <depth>1</depth>
          <value>4.9354838709677418e-01</value>
          <splits>
            <_><var>0</var>
              <quality>1.8465652465820312e+02</quality>
              <le>-1.6549142310395837e-04</le></_></splits></_>
        <_>
          <depth>2</depth>
          <value>7.1472392638036808e-01</value>
          <splits>
            <_><var>5</var>
              <quality>1.7091355895996094e+02</quality>
              <le>-8.5854269564151764e-03</le></_></splits></_>
        <_>
          <depth>3</depth>
          <value>8.7500000000000000e-01</value>
          <splits>
            <_><var>3</var>
              <quality>8.8925926208496094e+01</quality>
              <le>3.8535676896572113e-02</le></_></splits></_>
        <_>
          <depth>4</depth>
          <value>9.0740740740740744e-01</value>
          <splits>
            <_><var>3</var>
              <quality>8.9208099365234375e+01</quality>
              <le>2.8512552380561829e-02</le></_></splits></_>
        <_>
          <depth>5</depth>
          <value>9.2631578947368420e-01</value>
          <splits>
            <_><var>5</var>
              <quality>8.1940933227539062e+01</quality>
              <le>-1.1344854719936848e-02</le></_></splits></_>
        <_>
          <depth>6</depth>
          <value>9.8214285714285710e-01</value>
          <splits>
            <_><var>0</var>
              <quality>5.4038459777832031e+01</quality>
              <le>-4.2801501695066690e-04</le></_></splits></_>
        <_>
          <depth>7</depth>
          <value>9.6153846153846156e-01</value>
          <splits>
            <_><var>0</var>
              <quality>25.</quality>
              <le>-4.2948513873852789e-04</le></_></splits></_>
        <_>
          <depth>8</depth>
          <value>1.</value></_>
        <_>
          <depth>8</depth>
          <value>0.</value></_>
        <_>
          <depth>7</depth>
          <value>1.</value>
          <splits>
            <_><var>1</var>
              <quality>30.</quality>
              <le>-8.8014945387840271e-02</le></_></splits></_>
        <_>
          <depth>8</depth>
          <value>1.</value></_>
        <_>
          <depth>8</depth>
          <value>1.</value>
          <splits>
            <_><var>1</var>
              <quality>28.</quality>
              <le>-7.9757764935493469e-02</le></_></splits></_>
        <_>
          <depth>9</depth>
          <value>1.</value></_>
        <_>
          <depth>9</depth>
          <value>1.</value>
          <splits>
            <_><var>0</var>
              <quality>27.</quality>
              <le>-3.9567396743223071e-04</le></_></splits></_>
        <_>
          <depth>10</depth>
          <value>1.</value></_>
        <_>
          <depth>10</depth>
          <value>1.</value></_>
        <_>
          <depth>6</depth>
          <value>8.4615384615384615e-01</value>
          <splits>
            <_><var>6</var>
              <quality>2.9432432174682617e+01</quality>
              <le>1.0015432834625244e+00</le></_></splits></_>
        <_>
          <depth>7</depth>
          <value>0.</value></_>
        <_>
          <depth>7</depth>
          <value>8.9189189189189189e-01</value>
          <splits>
            <_><var>3</var>
              <quality>3.0121212005615234e+01</quality>
              <le>2.0174834877252579e-02</le></_></splits></_>
        <_>
          <depth>8</depth>
          <value>9.3939393939393945e-01</value>
          <splits>
            <_><var>3</var>
              <quality>2.9532258987426758e+01</quality>
              <le>1.4921607449650764e-02</le></_></splits></_>
        <_>
          <depth>9</depth>
          <value>5.0000000000000000e-01</value></_>
        <_>
          <depth>9</depth>
          <value>9.6774193548387100e-01</value>
          <splits>
            <_><var>3</var>
              <quality>2.9142856597900391e+01</quality>
              <le>1.8332764506340027e-02</le></_></splits></_>
        <_>
          <depth>10</depth>
          <value>1.</value></_>
        <_>
          <depth>10</depth>
          <value>8.5714285714285710e-01</value></_>
        <_>
          <depth>8</depth>
          <value>5.0000000000000000e-01</value></_>
        <_>
          <depth>5</depth>
          <value>7.6923076923076927e-01</value></_>
        <_>
          <depth>4</depth>
          <value>0.</value></_>
        <_>
          <depth>3</depth>
          <value>6.3084112149532712e-01</value>
          <splits>
            <_><var>0</var>
              <quality>8.9213905334472656e+01</quality>
              <le>-4.5356305781751871e-04</le></_></splits></_>
        <_>
          <depth>4</depth>
          <value>8.8000000000000000e-01</value>
          <splits>
            <_><var>6</var>
              <quality>4.0333332061767578e+01</quality>
              <le>1.0028746128082275e+00</le></_></splits></_>
        <_>
          <depth>5</depth>
          <value>9.1666666666666663e-01</value>
          <splits>
            <_><var>0</var>
              <quality>4.1422222137451172e+01</quality>
              <le>-1.3743939343839884e-03</le></_></splits></_>
        <_>
          <depth>6</depth>
          <value>3.3333333333333331e-01</value></_>
        <_>
          <depth>6</depth>
          <value>9.5555555555555560e-01</value>
          <splits>
            <_><var>6</var>
              <quality>4.1357143402099609e+01</quality>
              <le>1.0021445751190186e+00</le></_></splits></_>
        <_>
          <depth>7</depth>
          <value>6.6666666666666663e-01</value></_>
        <_>
          <depth>7</depth>
          <value>9.7619047619047616e-01</value>
          <splits>
            <_><var>6</var>
              <quality>4.0200000762939453e+01</quality>
              <le>1.0028258562088013e+00</le></_></splits></_>
        <_>
          <depth>8</depth>
          <value>1.</value>
          <splits>
            <_><var>6</var>
              <quality>37.</quality>
              <le>1.0022294521331787e+00</le></_></splits></_>
        <_>
          <depth>9</depth>
          <value>1.</value></_>
        <_>
          <depth>9</depth>
          <value>1.</value>
          <splits>
            <_><var>6</var>
              <quality>36.</quality>
              <le>1.0022454261779785e+00</le></_></splits></_>
        <_>
          <depth>10</depth>
          <value>1.</value></_>
        <_>
          <depth>10</depth>
          <value>1.</value>
          <splits>
            <_><var>0</var>
              <quality>35.</quality>
              <le>-1.1641784803941846e-03</le></_></splits></_>
        <_>
          <depth>11</depth>
          <value>1.</value></_>
        <_>
          <depth>11</depth>
          <value>1.</value>
          <splits>
            <_><var>4</var>
              <quality>33.</quality>
              <le>-9.5676004886627197e-01</le></_></splits></_>
        <_>
          <depth>12</depth>
          <value>1.</value></_>
        <_>
          <depth>12</depth>
          <value>1.</value>
          <splits>
            <_><var>5</var>
              <quality>31.</quality>
              <le>-6.2163723632693291e-03</le></_></splits></_>
        <_>
          <depth>13</depth>
          <value>1.</value></_>
        <_>
          <depth>13</depth>
          <value>1.</value>
          <splits>
            <_><var>3</var>
              <quality>30.</quality>
              <le>4.3629175052046776e-03</le></_></splits></_>
        <_>
          <depth>14</depth>
          <value>1.</value></_>
        <_>
          <depth>14</depth>
          <value>1.</value>
          <splits>
            <_><var>3</var>
              <quality>29.</quality>
              <le>4.8861755058169365e-03</le></_></splits></_>
        <_>
          <depth>15</depth>
          <value>1.</value></_>
        <_>
          <depth>15</depth>
          <value>1.</value>
          <splits>
            <_><var>4</var>
              <quality>28.</quality>
              <le>-6.0012871026992798e-01</le></_></splits></_>
        <_>
          <depth>16</depth>
          <value>1.</value></_>
        <_>
          <depth>16</depth>
          <value>1.</value>
          <splits>
            <_><var>6</var>
              <quality>27.</quality>
              <le>1.0022971630096436e+00</le></_></splits></_>
        <_>
          <depth>17</depth>
          <value>1.</value></_>
        <_>
          <depth>17</depth>
          <value>1.</value></_>
        <_>
          <depth>8</depth>
          <value>8.0000000000000004e-01</value></_>
        <_>
          <depth>5</depth>
          <value>0.</value></_>
        <_>
          <depth>4</depth>
          <value>5.5487804878048785e-01</value>
          <splits>
            <_><var>0</var>
              <quality>5.3772727966308594e+01</quality>
              <le>-4.3584857485257089e-04</le></_></splits></_>
        <_>
          <depth>5</depth>
          <value>0.</value></_>
        <_>
          <depth>5</depth>
          <value>5.9090909090909094e-01</value>
          <splits>
            <_><var>4</var>
              <quality>5.5206665039062500e+01</quality>
              <le>-6.7801982164382935e-02</le></_></splits></_>
        <_>
          <depth>6</depth>
          <value>6.0666666666666669e-01</value>
          <splits>
            <_><var>0</var>
              <quality>5.7171295166015625e+01</quality>
              <le>-2.3798737674951553e-04</le></_></splits></_>
        <_>
          <depth>7</depth>
          <value>5.2083333333333337e-01</value>
          <splits>
            <_><var>2</var>
              <quality>2.7646511077880859e+01</quality>
              <le>1.0198597609996796e-01</le></_></splits></_>
        <_>
          <depth>8</depth>
          <value>9.0000000000000002e-01</value></_>
        <_>
          <depth>8</depth>
          <value>4.7674418604651164e-01</value>
          <splits>
            <_><var>0</var>
              <quality>2.2413333892822266e+01</quality>
              <le>-2.5260841357521713e-04</le></_></splits></_>
        <_>
          <depth>9</depth>
          <value>5.4666666666666663e-01</value>
          <splits>
            <_><var>2</var>
              <quality>2.3676055908203125e+01</quality>
              <le>1.0466437786817551e-01</le></_></splits></_>
        <_>
          <depth>10</depth>
          <value>0.</value></_>
        <_>
          <depth>10</depth>
          <value>5.7746478873239437e-01</value>
          <splits>
            <_><var>5</var>
              <quality>2.4802831649780273e+01</quality>
              <le>-2.5089702103286982e-03</le></_></splits></_>
        <_>
          <depth>11</depth>
          <value>6.4814814814814814e-01</value>
          <splits>
            <_><var>1</var>
              <quality>2.4022222518920898e+01</quality>
              <le>-3.3247387409210205e-01</le></_></splits></_>
        <_>
          <depth>12</depth>
          <value>1.</value></_>
        <_>
          <depth>12</depth>
          <value>5.7777777777777772e-01</value>
          <splits>
            <_><var>6</var>
              <quality>1.6444444656372070e+01</quality>
              <le>1.0025901794433594e+00</le></_></splits></_>
        <_>
          <depth>13</depth>
          <value>6.6666666666666663e-01</value>
          <splits>
            <_><var>3</var>
              <quality>1.6965517044067383e+01</quality>
              <le>9.5533244311809540e-03</le></_></splits></_>
        <_>
          <depth>14</depth>
          <value>1.</value></_>
        <_>
          <depth>14</depth>
          <value>5.8620689655172409e-01</value>
          <splits>
            <_><var>1</var>
              <quality>1.0843434333801270e+01</quality>
              <le>-2.1651504933834076e-01</le></_></splits></_>
        <_>
          <depth>15</depth>
          <value>3.6363636363636365e-01</value></_>
        <_>
          <depth>15</depth>
          <value>7.2222222222222221e-01</value></_>
        <_>
          <depth>13</depth>
          <value>2.2222222222222221e-01</value></_>
        <_>
          <depth>11</depth>
          <value>3.5294117647058826e-01</value></_>
        <_>
          <depth>9</depth>
          <value>0.</value></_>
        <_>
          <depth>7</depth>
          <value>7.5925925925925930e-01</value>
          <splits>
            <_><var>3</var>
              <quality>3.2326923370361328e+01</quality>
              <le>4.3646143749356270e-03</le></_></splits></_>
        <_>
          <depth>8</depth>
          <value>0.</value></_>
        <_>
          <depth>8</depth>
          <value>7.8846153846153844e-01</value>
          <splits>
            <_><var>1</var>
              <quality>3.2986392974853516e+01</quality>
              <le>-9.6666529774665833e-02</le></_></splits></_>
        <_>
          <depth>9</depth>
          <value>8.1632653061224492e-01</value>
          <splits>
            <_><var>6</var>
              <quality>3.3382354736328125e+01</quality>
              <le>1.0024929046630859e+00</le></_></splits></_>
        <_>
          <depth>10</depth>
          <value>1.</value></_>
        <_>
          <depth>10</depth>
          <value>7.3529411764705888e-01</value>
          <splits>
            <_><var>3</var>
              <quality>2.0833333969116211e+01</quality>
              <le>1.0166222229599953e-02</le></_></splits></_>
        <_>
          <depth>11</depth>
          <value>8.3333333333333337e-01</value>
          <splits>
            <_><var>1</var>
              <quality>2.1315790176391602e+01</quality>
              <le>-4.3586575984954834e-01</le></_></splits></_>
        <_>
          <depth>12</depth>
          <value>1.</value></_>
        <_>
          <depth>12</depth>
          <value>7.3684210526315785e-01</value></_>
        <_>
          <depth>11</depth>
          <value>0.</value></_>
        <_>
          <depth>9</depth>
          <value>3.3333333333333331e-01</value></_>
        <_>
          <depth>6</depth>
          <value>0.</value></_>
        <_>
          <depth>2</depth>
          <value>2.4829931972789115e-01</value>
          <splits>
            <_><var>6</var>
              <quality>2.1985645294189453e+01</quality>
              <le>1.0028856992721558e+00</le></_></splits></_>
        <_>
          <depth>3</depth>
          <value>2.1818181818181817e-01</value>
          <splits>
            <_><var>0</var>
              <quality>1.7181116104125977e+01</quality>
              <le>-5.9502141084522009e-05</le></_></splits></_>
        <_>
          <depth>4</depth>
          <value>3.4328358208955223e-01</value>
          <splits>
            <_><var>0</var>
              <quality>1.8500000000000000e+01</quality>
              <le>-6.1477971030399203e-05</le></_></splits></_>
        <_>
          <depth>5</depth>
          <value>3.1250000000000000e-01</value>
          <splits>
            <_><var>2</var>
              <quality>1.3952328681945801e+01</quality>
              <le>5.8808494359254837e-02</le></_></splits></_>
        <_>
          <depth>6</depth>
          <value>5.1851851851851849e-01</value>
          <splits>
            <_><var>5</var>
              <quality>9.3636360168457031e+00</quality>
              <le>-8.8547784835100174e-03</le></_></splits></_>
        <_>
          <depth>7</depth>
          <value>1.8181818181818182e-01</value></_>
        <_>
          <depth>7</depth>
          <value>7.5000000000000000e-01</value></_>
        <_>
          <depth>6</depth>
          <value>2.5742574257425743e-01</value>
          <splits>
            <_><var>3</var>
              <quality>8.3979587554931641e+00</quality>
              <le>1.5462499111890793e-02</le></_></splits></_>
        <_>
          <depth>7</depth>
          <value>2.3469387755102042e-01</value>
          <splits>
            <_><var>3</var>
              <quality>7.5919117927551270e+00</quality>
              <le>1.2056320905685425e-02</le></_></splits></_>
        <_>
          <depth>8</depth>
          <value>3.4375000000000000e-01</value>
          <splits>
            <_><var>5</var>
              <quality>1.0947368621826172e+01</quality>
              <le>-4.1268956847488880e-03</le></_></splits></_>
        <_>
          <depth>9</depth>
          <value>1.</value></_>
        <_>
          <depth>9</depth>
          <value>2.6315789473684209e-01</value>
          <splits>
            <_><var>0</var>
              <quality>5.6756758689880371e+00</quality>
              <le>-1.1175441613886505e-04</le></_></splits></_>
        <_>
          <depth>10</depth>
          <value>5.0000000000000000e-01</value></_>
        <_>
          <depth>10</depth>
          <value>1.3513513513513514e-01</value>
          <splits>
            <_><var>6</var>
              <quality>1.</quality>
              <le>1.0028176307678223e+00</le></_></splits></_>
        <_>
          <depth>11</depth>
          <value>2.0000000000000001e-01</value></_>
        <_>
          <depth>11</depth>
          <value>0.</value></_>
        <_>
          <depth>8</depth>
          <value>2.9411764705882353e-02</value>
          <splits>
            <_><var>6</var>
              <quality>7.1428574621677399e-02</quality>
              <le>1.0023763179779053e+00</le></_></splits></_>
        <_>
          <depth>9</depth>
          <value>0.</value></_>
        <_>
          <depth>9</depth>
          <value>7.1428571428571425e-02</value></_>
        <_>
          <depth>7</depth>
          <value>1.</value></_>
        <_>
          <depth>5</depth>
          <value>1.</value></_>
        <_>
          <depth>4</depth>
          <value>9.9290780141843976e-02</value>
          <splits>
            <_><var>4</var>
              <quality>2.0056474208831787e+00</quality>
              <le>-8.6297549307346344e-02</le></_></splits></_>
        <_>
          <depth>5</depth>
          <value>1.6216216216216217e-01</value>
          <splits>
            <_><var>4</var>
              <quality>4.5378532409667969e+00</quality>
              <le>-1.0915282368659973e-01</le></_></splits></_>
        <_>
          <depth>6</depth>
          <value>6.7796610169491525e-02</value>
          <splits>
            <_><var>4</var>
              <quality>5.7843136787414551e-01</quality>
              <le>-1.9439238309860229e-01</le></_></splits></_>
        <_>
          <depth>7</depth>
          <value>2.5000000000000000e-01</value></_>
        <_>
          <depth>7</depth>
          <value>3.9215686274509803e-02</value>
          <splits>
            <_><var>2</var>
              <quality>4.0000000596046448e-01</quality>
              <le>1.3410127162933350e-01</le></_></splits></_>
        <_>
          <depth>8</depth>
          <value>2.0000000000000001e-01</value></_>
        <_>
          <depth>8</depth>
          <value>0.</value></_>
        <_>
          <depth>6</depth>
          <value>5.3333333333333333e-01</value></_>
        <_>
          <depth>5</depth>
          <value>2.9850746268656716e-02</value>
          <splits>
            <_><var>0</var>
              <quality>2.0000000298023224e-01</quality>
              <le>-2.0784476873814128e-05</le></_></splits></_>
        <_>
          <depth>6</depth>
          <value>0.</value></_>
        <_>
          <depth>6</depth>
          <value>1.0000000000000001e-01</value></_>
        <_>
          <depth>3</depth>
          <value>6.8421052631578949e-01</value></_>
        <_>
          <depth>1</depth>
          <value>2.0408163265306123e-01</value>
          <splits>
            <_><var>0</var>
              <quality>1.5172149658203125e+01</quality>
              <le>-2.0217512792441994e-04</le></_></splits></_>
        <_>
          <depth>2</depth>
          <value>5.5882352941176472e-01</value>
          <splits>
            <_><var>6</var>
              <quality>1.6409090042114258e+01</quality>
              <le>9.9829053878784180e-01</le></_></splits></_>
        <_>
          <depth>3</depth>
          <value>0.</value></_>
        <_>
          <depth>3</depth>
          <value>8.6363636363636365e-01</value></_>
        <_>
          <depth>2</depth>
          <value>1.4691943127962084e-01</value>
          <splits>
            <_><var>6</var>
              <quality>5.8957056999206543e+00</quality>
              <le>9.9872756004333496e-01</le></_></splits></_>
        <_>
          <depth>3</depth>
          <value>0.</value></_>
        <_>
          <depth>3</depth>
          <value>1.9018404907975461e-01</value>
          <splits>
            <_><var>5</var>
              <quality>9.6705951690673828e+00</quality>
              <le>-2.1123746410012245e-02</le></_></splits></_>
        <_>
          <depth>4</depth>
          <value>4.6153846153846156e-01</value>
          <splits>
            <_><var>3</var>
              <quality>1.0444444656372070e+01</quality>
              <le>3.9927296340465546e-02</le></_></splits></_>
        <_>
          <depth>5</depth>
          <value>8.8888888888888884e-01</value></_>
        <_>
          <depth>5</depth>
          <value>3.3333333333333331e-01</value>
          <splits>
            <_><var>3</var>
              <quality>5.2631578445434570e+00</quality>
              <le>4.5753628015518188e-02</le></_></splits></_>
        <_>
          <depth>6</depth>
          <value>0.</value></_>
        <_>
          <depth>6</depth>
          <value>5.2631578947368418e-01</value></_>
        <_>
          <depth>4</depth>
          <value>1.0483870967741936e-01</value>
          <splits>
            <_><var>0</var>
              <quality>1.9022988080978394e+00</quality>
              <le>-3.9818161894800141e-05</le></_></splits></_>
        <_>
          <depth>5</depth>
          <value>1.6666666666666666e-01</value>
          <splits>
            <_><var>0</var>
              <quality>3.2822580337524414e+00</quality>
              <le>-4.4976186472922564e-05</le></_></splits></_>
        <_>
          <depth>6</depth>
          <value>1.2903225806451613e-01</value>
          <splits>
            <_><var>5</var>
              <quality>1.7581521272659302e+00</quality>
              <le>-1.2535775080323219e-02</le></_></splits></_>
        <_>
          <depth>7</depth>
          <value>6.5217391304347824e-02</value>
          <splits>
            <_><var>0</var>
              <quality>3.6274510622024536e-01</quality>
              <le>-9.3456772447098047e-05</le></_></splits></_>
        <_>
          <depth>8</depth>
          <value>2.9411764705882353e-02</value>
          <splits>
            <_><var>1</var>
              <quality>6.2500000000000000e-02</quality>
              <le>-2.9875520616769791e-02</le></_></splits></_>
        <_>
          <depth>9</depth>
          <value>6.2500000000000000e-02</value></_>
        <_>
          <depth>9</depth>
          <value>0.</value></_>
        <_>
          <depth>8</depth>
          <value>1.6666666666666666e-01</value></_>
        <_>
          <depth>7</depth>
          <value>3.1250000000000000e-01</value></_>
        <_>
          <depth>6</depth>
          <value>7.5000000000000000e-01</value></_>
        <_>
          <depth>5</depth>
          <value>3.4482758620689655e-02</value>
          <splits>
            <_><var>0</var>
              <quality>2.6666668057441711e-01</quality>
              <le>-7.7522217907244340e-06</le></_></splits></_>
        <_>
          <depth>6</depth>
          <value>0.</value></_>
        <_>
          <depth>6</depth>
          <value>1.3333333333333333e-01</value></_></nodes></_>
    <_>
      <nodes>
        <_>
          <depth>0</depth>
          <value>4.3005780346820810e-01</value>
          <splits>
            <_><var>0</var>
              <quality>2.0678692626953125e+02</quality>
              <le>-1.6549142310395837e-04</le></_></splits></_>
        <_>
          <depth>1</depth>
          <value>6.8261964735516378e-01</value>
          <splits>
            <_><var>3</var>
              <quality>1.9444544982910156e+02</quality>
              <le>4.1429087519645691e-02</le></_></splits></_>
        <_>
          <depth>2</depth>
          <value>7.1999999999999997e-01</value>
          <splits>
            <_><var>2</var>
              <quality>1.9667231750488281e+02</quality>
              <le>5.0112284719944000e-02</le></_></splits></_>
        <_>
          <depth>3</depth>
          <value>8.3928571428571430e-01</value>
          <splits>
            <_><var>0</var>
              <quality>7.9680686950683594e+01</quality>
              <le>-4.7056147013790905e-04</le></_></splits></_>
        <_>
          <depth>4</depth>
          <value>5.5555555555555558e-01</value></_>
        <_>
          <depth>4</depth>
          <value>8.6407766990291257e-01</value>
          <splits>
            <_><var>3</var>
              <quality>7.7390243530273438e+01</quality>
              <le>3.6816321313381195e-02</le></_></splits></_>
        <_>
          <depth>5</depth>
          <value>8.2926829268292679e-01</value>
          <splits>
            <_><var>0</var>
              <quality>5.7096988677978516e+01</quality>
              <le>-2.0020021474920213e-04</le></_></splits></_>
        <_>
          <depth>6</depth>
          <value>8.6956521739130432e-01</value>
          <splits>
            <_><var>0</var>
              <quality>5.2421051025390625e+01</quality>
              <le>-2.1528656361624599e-04</le></_></splits></_>
        <_>
          <depth>7</depth>
          <value>8.4210526315789469e-01</value>
          <splits>
            <_><var>6</var>
              <quality>4.1142856597900391e+01</quality>
              <le>9.9946731328964233e-01</le></_></splits></_>
        <_>
          <depth>8</depth>
          <value>0.</value></_>
        <_>
          <depth>8</depth>
          <value>8.5714285714285710e-01</value>
          <splits>
            <_><var>4</var>
              <quality>4.1411109924316406e+01</quality>
              <le>-3.9253350347280502e-02</le></_></splits></_>
        <_>
          <depth>9</depth>
          <value>9.4999999999999996e-01</value></_>
        <_>
          <depth>9</depth>
          <value>8.0555555555555558e-01</value>
          <splits>
            <_><var>4</var>
              <quality>2.4735294342041016e+01</quality>
              <le>-3.8247894495725632e-02</le></_></splits></_>
        <_>
          <depth>10</depth>
          <value>0.</value></_>
        <_>
          <depth>10</depth>
          <value>8.5294117647058820e-01</value>
          <splits>
            <_><var>3</var>
              <quality>2.5484848022460938e+01</quality>
              <le>2.6397783309221268e-02</le></_></splits></_>
        <_>
          <depth>11</depth>
          <value>0.</value></_>
        <_>
          <depth>11</depth>
          <value>8.7878787878787878e-01</value>
          <splits>
            <_><var>3</var>
              <quality>2.5797618865966797e+01</quality>
              <le>3.1752750277519226e-02</le></_></splits></_>
        <_>
          <depth>12</depth>
          <value>9.5238095238095233e-01</value></_>
        <_>
          <depth>12</depth>
          <value>7.5000000000000000e-01</value></_>
        <_>
          <depth>7</depth>
          <value>1.</value></_>
        <_>
          <depth>6</depth>
          <value>6.1538461538461542e-01</value></_>
        <_>
          <depth>5</depth>
          <value>1.</value></_>
        <_>
          <depth>3</depth>
          <value>6.6920152091254748e-01</value>
          <splits>
            <_><var>3</var>
              <quality>1.1958405303955078e+02</quality>
              <le>4.1187815368175507e-03</le></_></splits></_>
        <_>
          <depth>4</depth>
          <value>2.7272727272727271e-01</value></_>
        <_>
          <depth>4</depth>
          <value>6.8650793650793651e-01</value>
          <splits>
            <_><var>3</var>
              <quality>1.2108922576904297e+02</quality>
              <le>7.1946084499359131e-03</le></_></splits></_>
        <_>
          <depth>5</depth>
          <value>8.7037037037037035e-01</value>
          <splits>
            <_><var>6</var>
              <quality>4.1531250000000000e+01</quality>
              <le>1.0027346611022949e+00</le></_></splits></_>
        <_>
          <depth>6</depth>
          <value>1.</value></_>
        <_>
          <depth>6</depth>
          <value>7.8125000000000000e-01</value>
          <splits>
            <_><var>5</var>
              <quality>2.1049999237060547e+01</quality>
              <le>-1.9927215762436390e-03</le></_></splits></_>
        <_>
          <depth>7</depth>
          <value>5.0000000000000000e-01</value></_>
        <_>
          <depth>7</depth>
          <value>9.4999999999999996e-01</value></_>
        <_>
          <depth>5</depth>
          <value>6.3636363636363635e-01</value>
          <splits>
            <_><var>5</var>
              <quality>8.3421203613281250e+01</quality>
              <le>-3.1635204795747995e-03</le></_></splits></_>
        <_>
          <depth>6</depth>
          <value>6.7027027027027031e-01</value>
          <splits>
            <_><var>2</var>
              <quality>8.4305885314941406e+01</quality>
              <le>5.6676737964153290e-02</le></_></splits></_>
        <_>
          <depth>7</depth>
          <value>4.0000000000000002e-01</value></_>
        <_>
          <depth>7</depth>
          <value>6.9411764705882351e-01</value>
          <splits>
            <_><var>5</var>
              <quality>8.3550987243652344e+01</quality>
              <le>-8.5854269564151764e-03</le></_></splits></_>
        <_>
          <depth>8</depth>
          <value>8.3636363636363631e-01</value>
          <splits>
            <_><var>4</var>
              <quality>3.9830329895019531e+01</quality>
              <le>-9.7904153168201447e-02</le></_></splits></_>
        <_>
          <depth>9</depth>
          <value>6.1111111111111116e-01</value></_>
        <_>
          <depth>9</depth>
          <value>9.4594594594594594e-01</value>
          <splits>
            <_><var>5</var>
              <quality>3.3362743377685547e+01</quality>
              <le>-1.9833471626043320e-02</le></_></splits></_>
        <_>
          <depth>10</depth>
          <value>6.6666666666666663e-01</value></_>
        <_>
          <depth>10</depth>
          <value>9.7058823529411764e-01</value>
          <splits>
            <_><var>6</var>
              <quality>3.2076923370361328e+01</quality>
              <le>1.0016875267028809e+00</le></_></splits></_>
        <_>
          <depth>11</depth>
          <value>1.</value></_>
        <_>
          <depth>11</depth>
          <value>9.2307692307692313e-01</value></_>
        <_>
          <depth>8</depth>
          <value>6.2608695652173918e-01</value>
          <splits>
            <_><var>3</var>
              <quality>48.</quality>
              <le>1.5842400491237640e-02</le></_></splits></_>
        <_>
          <depth>9</depth>
          <value>6.6666666666666663e-01</value>
          <splits>
            <_><var>2</var>
              <quality>4.9402595520019531e+01</quality>
              <le>1.8625161051750183e-01</le></_></splits></_>
        <_>
          <depth>10</depth>
          <value>7.5757575757575757e-01</value>
          <splits>
            <_><var>2</var>
              <quality>3.8421249389648438e+01</quality>
              <le>1.3923597335815430e-01</le></_></splits></_>
        <_>
          <depth>11</depth>
          <value>6.5517241379310343e-01</value>
          <splits>
            <_><var>3</var>
              <quality>1.5041666984558105e+01</quality>
              <le>1.1276317760348320e-02</le></_></splits></_>
        <_>
          <depth>12</depth>
          <value>0.</value></_>
        <_>
          <depth>12</depth>
          <value>7.9166666666666663e-01</value></_>
        <_>
          <depth>11</depth>
          <value>8.3783783783783783e-01</value>
          <splits>
            <_><var>2</var>
              <quality>2.6333333969116211e+01</quality>
              <le>1.5478953719139099e-01</le></_></splits></_>
        <_>
          <depth>12</depth>
          <value>1.</value></_>
        <_>
          <depth>12</depth>
          <value>7.7777777777777779e-01</value>
          <splits>
            <_><var>2</var>
              <quality>1.7639999389648438e+01</quality>
              <le>1.5851616859436035e-01</le></_></splits></_>
        <_>
          <depth>13</depth>
          <value>0.</value></_>
        <_>
          <depth>13</depth>
          <value>8.3999999999999997e-01</value></_>
        <_>
          <depth>10</depth>
          <value>5.2380952380952384e-01</value>
          <splits>
            <_><var>2</var>
              <quality>1.3828571319580078e+01</quality>
              <le>2.0152419805526733e-01</le></_></splits></_>
        <_>
          <depth>11</depth>
          <value>0.</value></_>
        <_>
          <depth>11</depth>
          <value>6.2857142857142856e-01</value>
          <splits>
            <_><var>3</var>
              <quality>1.5199999809265137e+01</quality>
              <le>8.1233615055680275e-03</le></_></splits></_>
        <_>
          <depth>12</depth>
          <value>4.0000000000000002e-01</value></_>
        <_>
          <depth>12</depth>
          <value>8.0000000000000004e-01</value></_>
        <_>
          <depth>9</depth>
          <value>0.</value></_>
        <_>
          <depth>6</depth>
          <value>1.5384615384615385e-01</value></_>
        <_>
          <depth>2</depth>
          <value>4.5454545454545456e-02</value></_>
        <_>
          <depth>1</depth>
          <value>2.1581196581196582e-01</value>
          <splits>
            <_><var>1</var>
              <quality>2.3619245529174805e+01</quality>
              <le>-1.1018589138984680e-01</le></_></splits></_>
        <_>
          <depth>2</depth>
          <value>3.0666666666666664e-01</value>
          <splits>
            <_><var>4</var>
              <quality>1.7111110687255859e+01</quality>
              <le>-9.2983976006507874e-02</le></_></splits></_>
        <_>
          <depth>3</depth>
          <value>2.7777777777777779e-01</value>
          <splits>
            <_><var>0</var>
              <quality>1.4727509498596191e+01</quality>
              <le>-1.1127539619337767e-04</le></_></splits></_>
        <_>
          <depth>4</depth>
          <value>6.1538461538461542e-01</value>
          <splits>
            <_><var>5</var>
              <quality>1.0666666984558105e+01</quality>
              <le>-1.0511935688555241e-03</le></_></splits></_>
        <_>
          <depth>5</depth>
          <value>6.6666666666666663e-01</value></_>
        <_>
          <depth>5</depth>
          <value>0.</value></_>
        <_>
          <depth>4</depth>
          <value>2.0338983050847459e-01</value>
          <splits>
            <_><var>3</var>
              <quality>6.8347826004028320e+00</quality>
              <le>3.9876452647149563e-03</le></_></splits></_>
        <_>
          <depth>5</depth>
          <value>1.</value></_>
        <_>
          <depth>5</depth>
          <value>1.8260869565217391e-01</value>
          <splits>
            <_><var>2</var>
              <quality>4.4099998474121094e+00</quality>
              <le>2.8252065181732178e-01</le></_></splits></_>
        <_>
          <depth>6</depth>
          <value>2.0999999999999999e-01</value>
          <splits>
            <_><var>4</var>
              <quality>6.3402061462402344e+00</quality>
              <le>-2.6153194904327393e-01</le></_></splits></_>
        <_>
          <depth>7</depth>
          <value>1.</value></_>
        <_>
          <depth>7</depth>
          <value>1.8556701030927836e-01</value>
          <splits>
            <_><var>6</var>
              <quality>4.0567374229431152e+00</quality>
              <le>1.0028884410858154e+00</le></_></splits></_>
        <_>
          <depth>8</depth>
          <value>1.7021276595744680e-01</value>
          <splits>
            <_><var>3</var>
              <quality>3.2546992301940918e+00</quality>
              <le>6.2893242575228214e-03</le></_></splits></_>
        <_>
          <depth>9</depth>
          <value>7.8947368421052627e-02</value>
          <splits>
            <_><var>3</var>
              <quality>4.4761905074119568e-01</quality>
              <le>5.0812633708119392e-03</le></_></splits></_>
        <_>
          <depth>10</depth>
          <value>3.3333333333333331e-01</value></_>
        <_>
          <depth>10</depth>
          <value>5.7142857142857141e-02</value>
          <splits>
            <_><var>0</var>
              <quality>2.8225806355476379e-01</quality>
              <le>-9.8964374046772718e-05</le></_></splits></_>
        <_>
          <depth>11</depth>
